digraph Tree {
node [shape=box, style="filled", color="black"] ;
0 [label="down 3 <= 0.5\nentropy = 0.979\nsamples = 239018\nvalue = [139766, 99252]\nclass = pass", fillcolor="#f7dac6"] ;
1 [label="half_seconds_remaining <= 119.5\nentropy = 0.997\nsamples = 189000\nvalue = [100209, 88791]\nclass = pass", fillcolor="#fcf1e8"] ;
0 -> 1 [labeldistance=2.5, labelangle=45, headlabel="True"] ;
2 [label="score_differential <= -0.5\nentropy = 0.752\nsamples = 18520\nvalue = [14531, 3989]\nclass = pass", fillcolor="#eca46f"] ;
1 -> 2 ;
3 [label="posteam_timeouts_remaining <= 1.5\nentropy = 0.605\nsamples = 11429\nvalue = [9736, 1693]\nclass = pass", fillcolor="#ea975b"] ;
2 -> 3 ;
4 [label="game_seconds_remaining <= 112.5\nentropy = 0.494\nsamples = 6221\nvalue = [5548, 673]\nclass = pass", fillcolor="#e89051"] ;
3 -> 4 ;
5 [label="entropy = 0.43\nsamples = 3801\nvalue = [3466, 335]\nclass = pass", fillcolor="#e88d4c"] ;
4 -> 5 ;
6 [label="entropy = 0.583\nsamples = 2420\nvalue = [2082, 338]\nclass = pass", fillcolor="#e99559"] ;
4 -> 6 ;
7 [label="score_differential <= -8.5\nentropy = 0.714\nsamples = 5208\nvalue = [4188, 1020]\nclass = pass", fillcolor="#eba069"] ;
3 -> 7 ;
8 [label="entropy = 0.687\nsamples = 2457\nvalue = [2007, 450]\nclass = pass", fillcolor="#eb9d65"] ;
7 -> 8 ;
9 [label="entropy = 0.736\nsamples = 2751\nvalue = [2181, 570]\nclass = pass", fillcolor="#eca26d"] ;
7 -> 9 ;
10 [label="game_seconds_remaining <= 1824.5\nentropy = 0.908\nsamples = 7091\nvalue = [4795, 2296]\nclass = pass", fillcolor="#f1bd98"] ;
2 -> 10 ;
11 [label="entropy = 0.997\nsamples = 2407\nvalue = [1279, 1128]\nclass = pass", fillcolor="#fcf0e8"] ;
10 -> 11 ;
12 [label="entropy = 0.81\nsamples = 4684\nvalue = [3516, 1168]\nclass = pass", fillcolor="#eeab7b"] ;
10 -> 12 ;
13 [label="score_differential <= -7.5\nentropy = 1.0\nsamples = 170480\nvalue = [85678, 84802]\nclass = pass", fillcolor="#fffefd"] ;
1 -> 13 ;
14 [label="game_seconds_remaining <= 716.5\nentropy = 0.937\nsamples = 37068\nvalue = [23984, 13084]\nclass = pass", fillcolor="#f3c6a5"] ;
13 -> 14 ;
15 [label="half_seconds_remaining <= 425.5\nentropy = 0.709\nsamples = 11941\nvalue = [9629, 2312]\nclass = pass", fillcolor="#eb9f69"] ;
14 -> 15 ;
16 [label="score_differential <= -18.5\nentropy = 0.617\nsamples = 7062\nvalue = [5982, 1080]\nclass = pass", fillcolor="#ea985d"] ;
15 -> 16 ;
17 [label="entropy = 0.788\nsamples = 2411\nvalue = [1843, 568]\nclass = pass", fillcolor="#eda876"] ;
16 -> 17 ;
18 [label="entropy = 0.5\nsamples = 4651\nvalue = [4139, 512]\nclass = pass", fillcolor="#e89151"] ;
16 -> 18 ;
19 [label="score_differential <= -16.5\nentropy = 0.815\nsamples = 4879\nvalue = [3647, 1232]\nclass = pass", fillcolor="#eeac7c"] ;
15 -> 19 ;
20 [label="entropy = 0.778\nsamples = 2390\nvalue = [1841, 549]\nclass = pass", fillcolor="#eda774"] ;
19 -> 20 ;
21 [label="entropy = 0.848\nsamples = 2489\nvalue = [1806, 683]\nclass = pass", fillcolor="#efb184"] ;
19 -> 21 ;
22 [label="ydstogo <= 4.5\nentropy = 0.985\nsamples = 25127\nvalue = [14355, 10772]\nclass = pass", fillcolor="#f9e0ce"] ;
14 -> 22 ;
23 [label="entropy = 0.972\nsamples = 2863\nvalue = [1148, 1715]\nclass = run", fillcolor="#bedff6"] ;
22 -> 23 ;
24 [label="down 1 <= 0.5\nentropy = 0.975\nsamples = 22264\nvalue = [13207, 9057]\nclass = pass", fillcolor="#f7d7c1"] ;
22 -> 24 ;
25 [label="game_seconds_remaining <= 1995.5\nentropy = 0.902\nsamples = 8335\nvalue = [5686, 2649]\nclass = pass", fillcolor="#f1bc95"] ;
24 -> 25 ;
26 [label="half_seconds_remaining <= 1124.5\nentropy = 0.869\nsamples = 5492\nvalue = [3900, 1592]\nclass = pass", fillcolor="#f0b48a"] ;
25 -> 26 ;
27 [label="entropy = 0.813\nsamples = 2391\nvalue = [1791, 600]\nclass = pass", fillcolor="#eeab7b"] ;
26 -> 27 ;
28 [label="entropy = 0.904\nsamples = 3101\nvalue = [2109, 992]\nclass = pass", fillcolor="#f1bc96"] ;
26 -> 28 ;
29 [label="entropy = 0.952\nsamples = 2843\nvalue = [1786, 1057]\nclass = pass", fillcolor="#f4ccae"] ;
25 -> 29 ;
30 [label="game_seconds_remaining <= 1315.5\nentropy = 0.995\nsamples = 13929\nvalue = [7521, 6408]\nclass = pass", fillcolor="#fbece2"] ;
24 -> 30 ;
31 [label="score_differential <= -14.5\nentropy = 0.965\nsamples = 4985\nvalue = [3041, 1944]\nclass = pass", fillcolor="#f6d2b8"] ;
30 -> 31 ;
32 [label="entropy = 0.91\nsamples = 2559\nvalue = [1727, 832]\nclass = pass", fillcolor="#f2be98"] ;
31 -> 32 ;
33 [label="entropy = 0.995\nsamples = 2426\nvalue = [1314, 1112]\nclass = pass", fillcolor="#fbece1"] ;
31 -> 33 ;
34 [label="half_seconds_remaining <= 500.5\nentropy = 1.0\nsamples = 8944\nvalue = [4480, 4464]\nclass = pass", fillcolor="#fffffe"] ;
30 -> 34 ;
35 [label="entropy = 0.988\nsamples = 2396\nvalue = [1352, 1044]\nclass = pass", fillcolor="#f9e2d2"] ;
34 -> 35 ;
36 [label="entropy = 0.999\nsamples = 6548\nvalue = [3128, 3420]\nclass = run", fillcolor="#eef7fd"] ;
34 -> 36 ;
37 [label="ydstogo <= 10.5\nentropy = 0.996\nsamples = 133412\nvalue = [61694, 71718]\nclass = run", fillcolor="#e3f1fb"] ;
13 -> 37 ;
38 [label="ydstogo <= 2.5\nentropy = 0.99\nsamples = 121546\nvalue = [53591, 67955]\nclass = run", fillcolor="#d5eafa"] ;
37 -> 38 ;
39 [label="ydstogo <= 1.5\nentropy = 0.804\nsamples = 7417\nvalue = [1820, 5597]\nclass = run", fillcolor="#79bded"] ;
38 -> 39 ;
40 [label="entropy = 0.73\nsamples = 4489\nvalue = [915, 3574]\nclass = run", fillcolor="#6cb6ec"] ;
39 -> 40 ;
41 [label="entropy = 0.892\nsamples = 2928\nvalue = [905, 2023]\nclass = run", fillcolor="#92c9f1"] ;
39 -> 41 ;
42 [label="down 1 <= 0.5\nentropy = 0.994\nsamples = 114129\nvalue = [51771, 62358]\nclass = run", fillcolor="#ddeefb"] ;
38 -> 42 ;
43 [label="ydstogo <= 5.5\nentropy = 0.998\nsamples = 43202\nvalue = [22644, 20558]\nclass = pass", fillcolor="#fdf3ed"] ;
42 -> 43 ;
44 [label="score_differential <= 4.5\nentropy = 0.975\nsamples = 10957\nvalue = [4468, 6489]\nclass = run", fillcolor="#c1e0f7"] ;
43 -> 44 ;
45 [label="entropy = 0.987\nsamples = 7652\nvalue = [3317, 4335]\nclass = run", fillcolor="#d1e8f9"] ;
44 -> 45 ;
46 [label="entropy = 0.933\nsamples = 3305\nvalue = [1151, 2154]\nclass = run", fillcolor="#a3d1f3"] ;
44 -> 46 ;
47 [label="score_differential <= 11.5\nentropy = 0.988\nsamples = 32245\nvalue = [18176, 14069]\nclass = pass", fillcolor="#f9e3d2"] ;
43 -> 47 ;
48 [label="entropy = 0.981\nsamples = 28184\nvalue = [16387, 11797]\nclass = pass", fillcolor="#f8dcc8"] ;
47 -> 48 ;
49 [label="entropy = 0.99\nsamples = 4061\nvalue = [1789, 2272]\nclass = run", fillcolor="#d5eaf9"] ;
47 -> 49 ;
50 [label="score_differential <= 7.5\nentropy = 0.977\nsamples = 70927\nvalue = [29127, 41800]\nclass = run", fillcolor="#c3e1f7"] ;
42 -> 50 ;
51 [label="score_differential <= -0.5\nentropy = 0.988\nsamples = 57296\nvalue = [24916, 32380]\nclass = run", fillcolor="#d1e8f9"] ;
50 -> 51 ;
52 [label="entropy = 0.998\nsamples = 21927\nvalue = [10436, 11491]\nclass = run", fillcolor="#edf6fd"] ;
51 -> 52 ;
53 [label="entropy = 0.976\nsamples = 35369\nvalue = [14480, 20889]\nclass = run", fillcolor="#c2e1f7"] ;
51 -> 53 ;
54 [label="game_seconds_remaining <= 620.5\nentropy = 0.892\nsamples = 13631\nvalue = [4211, 9420]\nclass = run", fillcolor="#92c9f1"] ;
50 -> 54 ;
55 [label="entropy = 0.495\nsamples = 3064\nvalue = [332, 2732]\nclass = run", fillcolor="#51a9e8"] ;
54 -> 55 ;
56 [label="entropy = 0.948\nsamples = 10567\nvalue = [3879, 6688]\nclass = run", fillcolor="#acd6f4"] ;
54 -> 56 ;
57 [label="down 1 <= 0.5\nentropy = 0.901\nsamples = 11866\nvalue = [8103, 3763]\nclass = pass", fillcolor="#f1bc95"] ;
37 -> 57 ;
58 [label="score_differential <= 6.5\nentropy = 0.864\nsamples = 8990\nvalue = [6416, 2574]\nclass = pass", fillcolor="#efb488"] ;
57 -> 58 ;
59 [label="game_seconds_remaining <= 2621.5\nentropy = 0.829\nsamples = 6511\nvalue = [4810, 1701]\nclass = pass", fillcolor="#eeae7f"] ;
58 -> 59 ;
60 [label="entropy = 0.769\nsamples = 3993\nvalue = [3096, 897]\nclass = pass", fillcolor="#eda672"] ;
59 -> 60 ;
61 [label="entropy = 0.904\nsamples = 2518\nvalue = [1714, 804]\nclass = pass", fillcolor="#f1bc96"] ;
59 -> 61 ;
62 [label="entropy = 0.936\nsamples = 2479\nvalue = [1606, 873]\nclass = pass", fillcolor="#f3c5a5"] ;
58 -> 62 ;
63 [label="entropy = 0.978\nsamples = 2876\nvalue = [1687, 1189]\nclass = pass", fillcolor="#f7dac5"] ;
57 -> 63 ;
64 [label="ydstogo <= 1.5\nentropy = 0.74\nsamples = 50018\nvalue = [39557, 10461]\nclass = pass", fillcolor="#eca26d"] ;
0 -> 64 [labeldistance=2.5, labelangle=-45, headlabel="False"] ;
65 [label="score_differential <= -0.5\nentropy = 0.859\nsamples = 5568\nvalue = [1575, 3993]\nclass = run", fillcolor="#87c4ef"] ;
64 -> 65 ;
66 [label="entropy = 0.923\nsamples = 2463\nvalue = [833, 1630]\nclass = run", fillcolor="#9ecff2"] ;
65 -> 66 ;
67 [label="entropy = 0.793\nsamples = 3105\nvalue = [742, 2363]\nclass = run", fillcolor="#77bced"] ;
65 -> 67 ;
68 [label="ydstogo <= 2.5\nentropy = 0.598\nsamples = 44450\nvalue = [37982, 6468]\nclass = pass", fillcolor="#e9965b"] ;
64 -> 68 ;
69 [label="entropy = 0.919\nsamples = 3951\nvalue = [2633, 1318]\nclass = pass", fillcolor="#f2c09c"] ;
68 -> 69 ;
70 [label="game_seconds_remaining <= 316.5\nentropy = 0.55\nsamples = 40499\nvalue = [35349, 5150]\nclass = pass", fillcolor="#e99356"] ;
68 -> 70 ;
71 [label="entropy = 0.857\nsamples = 4680\nvalue = [3364, 1316]\nclass = pass", fillcolor="#efb286"] ;
70 -> 71 ;
72 [label="ydstogo <= 15.5\nentropy = 0.491\nsamples = 35819\nvalue = [31985, 3834]\nclass = pass", fillcolor="#e89051"] ;
70 -> 72 ;
73 [label="ydstogo <= 3.5\nentropy = 0.467\nsamples = 32757\nvalue = [29505, 3252]\nclass = pass", fillcolor="#e88f4f"] ;
72 -> 73 ;
74 [label="entropy = 0.636\nsamples = 3426\nvalue = [2876, 550]\nclass = pass", fillcolor="#ea995f"] ;
73 -> 74 ;
75 [label="score_differential <= 9.5\nentropy = 0.444\nsamples = 29331\nvalue = [26629, 2702]\nclass = pass", fillcolor="#e88e4d"] ;
73 -> 75 ;
76 [label="ydstogo <= 4.5\nentropy = 0.424\nsamples = 25352\nvalue = [23164, 2188]\nclass = pass", fillcolor="#e78d4c"] ;
75 -> 76 ;
77 [label="entropy = 0.499\nsamples = 3078\nvalue = [2740, 338]\nclass = pass", fillcolor="#e89151"] ;
76 -> 77 ;
78 [label="entropy = 0.413\nsamples = 22274\nvalue = [20424, 1850]\nclass = pass", fillcolor="#e78c4b"] ;
76 -> 78 ;
79 [label="entropy = 0.555\nsamples = 3979\nvalue = [3465, 514]\nclass = pass", fillcolor="#e99456"] ;
75 -> 79 ;
80 [label="entropy = 0.702\nsamples = 3062\nvalue = [2480, 582]\nclass = pass", fillcolor="#eb9f67"] ;
72 -> 80 ;
}